#pragma once

#include "nn/layerData.h"

float layer0_weights[416] = {-0.261036f, -0.031270f, -0.110935f, -0.273026f, -0.429046f, 0.301075f, 0.111108f, 0.405792f, -0.044984f, 0.262756f, 0.061814f, 0.102989f, -0.173031f, -0.261305f, -0.171076f, 0.056696f, 0.053749f, 0.076047f, -0.258822f, -0.183028f, 0.030880f, 0.308279f, -0.126270f, 0.148679f, -0.112127f, 0.010514f, 0.191081f, -0.317342f, -0.234656f, -0.130270f, -0.168166f, 0.179576f, -0.239827f, -0.187728f, -0.133713f, -0.319810f, -0.221955f, 0.178355f, 0.063704f, 0.164464f, 0.095020f, -0.201430f, 0.126124f, -0.333515f, -0.086475f, -0.086560f, 0.273462f, 0.046097f, 0.006236f, 0.086775f, 0.285863f, 0.272773f, -0.090931f, -1.010862f, 0.330822f, -0.591664f, -0.562584f, 0.724432f, -0.110181f, 0.222473f, 0.472997f, 0.323084f, -0.093069f, 0.022771f, 0.277713f, 0.062655f, -0.088031f, -0.031902f, 0.075016f, 0.243804f, -0.294330f, -0.180526f, 0.028388f, 0.329943f, 0.152511f, 0.152864f, -0.033890f, -0.329894f, 0.206400f, 0.030718f, -0.202205f, 0.422914f, 0.472520f, -0.227818f, 0.190693f, 0.041261f, -0.242385f, -0.108166f, 0.189263f, -0.087836f, 0.224740f, 0.140258f, 0.198547f, 0.103704f, -0.274503f, -0.179916f, 0.138485f, 0.058050f, -0.216356f, -0.159704f, 0.260917f, 0.186883f, -0.120932f, -0.069805f, -0.197577f, -0.068781f, -0.274214f, -0.277715f, -0.077236f, -0.022301f, -0.177251f, 0.100488f, -0.104717f, 0.187363f, 0.125833f, -0.298145f, -0.133141f, 0.012515f, 0.040466f, 0.065780f, 0.108840f, 0.016613f, -0.135327f, 0.131239f, -0.266048f, -0.164387f, -0.069429f, -0.135101f, -0.097026f, -0.227322f, -0.188833f, 0.234958f, -0.063268f, 0.128742f, 0.009832f, -0.156138f, -0.126655f, -0.150318f, -0.051565f, 0.099188f, 0.223651f, 0.100947f, 0.204776f, -0.020058f, -0.249150f, -0.131485f, 0.188849f, -0.001798f, -0.137856f, -0.212537f, -0.259559f, -0.234086f, -0.056257f, 0.152100f, 0.149947f, -0.267485f, 0.173006f, -0.217029f, -0.058635f, -0.112458f, -0.053422f, -0.054456f, -0.248880f, -0.239475f, -0.043400f, 0.003587f, -0.125993f, 0.104478f, -0.249631f, -0.201571f, 0.379653f, -0.001053f, 0.351242f, -0.042764f, -0.264069f, 0.134160f, -0.049360f, -0.197859f, 0.273723f, -0.174505f, 0.065201f, -0.035871f, 0.274344f, 0.018806f, 0.072675f, 0.039341f, -0.040205f, -0.123094f, -0.290486f, 0.086529f, 0.298049f, 0.121192f, -0.264343f, -0.055018f, -0.258661f, -0.375588f, -0.057502f, 0.319335f, -0.047795f, -0.004130f, -0.138758f, 0.243249f, -0.320004f, -0.032742f, -0.263688f, 0.258068f, -0.142214f, 0.447583f, 0.023467f, -0.040904f, -0.078533f, -0.132014f, -0.044296f, -0.132190f, -0.079552f, -0.038095f, -0.136813f, -0.214988f, 0.144758f, -0.295807f, -0.097484f, 0.322366f, 0.016118f, -0.060704f, -0.325036f, 0.053001f, -0.282149f, -0.163442f, -0.177784f, -0.011223f, -0.079712f, 0.144262f, -0.048989f, 0.166866f, 0.342360f, -0.074830f, 0.003893f, -0.101057f, 0.050415f, 0.133123f, 0.148175f, 0.265225f, -0.216943f, 0.031809f, 0.178153f, -0.222984f, 0.165542f, -0.229347f, 0.003823f, -0.047154f, -0.146073f, 0.036658f, 0.229346f, -0.081075f, -0.164661f, -0.102575f, -0.274895f, 0.125194f, -0.133201f, -0.185087f, -0.443022f, 0.436027f, 0.418005f, 0.456167f, -0.220861f, -0.134160f, -0.130224f, 0.042775f, 0.040853f, 0.201236f, 0.028955f, -0.021036f, -0.103412f, 0.179112f, -0.261906f, -0.353107f, 0.141118f, -0.093438f, -0.104093f, 0.021198f, -0.061550f, -0.087252f, -0.316933f, 0.128291f, -0.045048f, 0.148213f, -0.015545f, -0.000186f, -0.141397f, -0.095094f, -0.091098f, 0.011065f, 0.014376f, -0.088606f, 0.020129f, -0.254153f, 0.111740f, -0.289695f, 0.035148f, -0.018510f, -0.206027f, -0.024925f, -0.216787f, -0.004005f, -0.023935f, -0.276931f, -0.032182f, 0.042090f, 0.037070f, -0.109484f, -0.301043f, -0.117432f, 0.201294f, -0.225701f, 0.003290f, 0.064317f, -0.000285f, -0.062570f, 0.069531f, -0.043062f, 0.143650f, -0.059571f, -0.317759f, -0.071861f, 0.114335f, 0.132379f, 0.056362f, 0.035348f, 0.031436f, -0.335188f, -0.273500f, -0.314917f, 0.221443f, 0.279082f, -0.229733f, 0.052080f, 0.155307f, 0.223963f, 0.281961f, 0.151101f, -0.091954f, -0.133889f, 0.341885f, 0.220412f, -0.100902f, 0.312018f, 0.136417f, 0.183935f, -0.149805f, 0.112916f, -0.070609f, 0.094037f, 0.137377f, 0.299613f, 0.214033f, 0.421272f, -0.048093f, 0.304187f, -0.095886f, 0.123257f, -0.195899f, -0.153058f, -0.129976f, 0.419073f, 0.070210f, 0.203531f, 0.307442f, -0.295288f, -0.171020f, -0.108220f, -0.220481f, 0.131009f, -0.115217f, -0.205699f, -0.325069f, -0.223016f, 0.250364f, 0.304675f, 0.283307f, 0.155327f, 0.326756f, -0.040153f, 0.214614f, 0.313196f, 0.178910f, 0.165977f, 0.242536f, 0.253208f, -0.006258f, 0.142471f, 0.095664f, -0.131527f, -0.220606f, -0.220802f, -0.278604f, 0.120146f, 0.131147f, -0.097378f, -0.095968f, 0.147796f, 0.110886f, -0.045516f, -0.196789f, 0.550948f, 0.056508f, -0.299048f, 0.233386f, 0.485360f, 0.006689f, 0.337284f, -0.015919f, -0.070531f, 0.226475f, 0.042881f, -0.137331f, 0.011370f};
float layer0_bias[32] = {0.028412f, -0.049356f, -0.033510f, 0.221206f, 0.151056f, -0.260535f, 0.125184f, 0.132986f, 0.073186f, -0.253481f, -0.105976f, -0.206111f, -0.118341f, 0.122289f, -0.259931f, 0.325707f, 0.156391f, -0.061017f, -0.258964f, -0.099370f, 0.247571f, -0.294312f, 0.060669f, -0.326476f, -0.338305f, -0.306678f, -0.030177f, 0.391466f, -0.208422f, 0.208120f, -0.176722f, 0.179969f};

float layer1_weights[128] = {0.319874f, -0.111443f, 0.089047f, 0.214782f, 0.358148f, 0.157353f, -0.390450f, 0.147535f, 0.083976f, 0.083830f, -0.070868f, -0.050846f, -0.173573f, -0.224194f, 0.097726f, -0.364257f, -0.014586f, 0.012961f, 0.166893f, -0.118278f, -0.309788f, -0.000407f, -0.044163f, 0.110004f, 0.140899f, 0.070427f, 0.175381f, -0.537165f, -0.106967f, 0.150896f, -0.033552f, -0.280505f, -0.234628f, -0.219635f, -0.085675f, 0.016411f, -0.229547f, 0.059797f, 0.309366f, 0.097818f, -0.084675f, -0.054655f, -0.135752f, 0.023494f, 0.087630f, -0.266553f, 0.224271f, -0.249526f, -0.078924f, -0.024203f, 0.271565f, 0.161667f, -0.482478f, 0.053798f, -0.021776f, 0.040372f, 0.102881f, -0.161880f, 0.236249f, 0.146663f, -0.174982f, 0.032889f, -0.135919f, 0.445822f, -0.293404f, -0.042596f, -0.009983f, 0.106363f, -0.485795f, 0.107599f, 0.158000f, -0.017589f, -0.044885f, -0.042636f, 0.150770f, -0.128056f, -0.103950f, 0.066179f, 0.204189f, -0.218460f, -0.079786f, -0.173541f, 0.021250f, 0.172653f, 0.166027f, -0.040398f, -0.131986f, -0.066514f, 0.047409f, -0.040216f, -0.256043f, -0.080013f, -0.284130f, 0.112537f, -0.130811f, -0.177445f, -0.116496f, 0.142482f, -0.179441f, -0.072033f, 0.152219f, 0.100174f, -0.535520f, -0.169469f, 0.110046f, -0.111845f, -0.029202f, -0.015257f, -0.037239f, -0.124877f, 0.050490f, 0.226964f, -0.236851f, -0.170444f, -0.115922f, 0.088957f, -0.024036f, 0.090985f, 0.059352f, 0.032965f, 0.073423f, 0.011248f, 0.074595f, 0.317794f, 0.006355f, -0.186667f, -0.075621f, -0.001659f};
float layer1_bias[4] = {-0.005408f, -0.272448f, 0.089184f, 0.177241f};

const LayerData nn_layers[] = {
    {nullptr, nullptr, 0, 13},
    {layer0_weights, layer0_bias, 13, 32},
    {layer1_weights, layer1_bias, 32, 4}};

const uint8_t nn_total_layers = 3;
