#pragma once

#include "nn/layerData.h"

const float layer0_weights[416] = { -0.304542f, -0.242494f, -0.088341f, -0.439559f, -0.353354f, 0.403094f, 0.112349f, 0.493556f, -0.158853f, 0.343904f, 0.030240f, 0.172046f, -0.203207f, -0.305600f, -0.176505f, 0.102769f, 0.052572f, 0.079194f, -0.261879f, -0.182488f, 0.029154f, 0.306193f, -0.124119f, 0.152252f, -0.109068f, 0.035712f, 0.219014f, -0.640370f, -0.232285f, -0.226764f, -0.294317f, 0.074606f, 0.079884f, -0.241941f, 0.123044f, -0.317591f, 0.130658f, 0.204556f, 0.271789f, -0.017894f, 0.162235f, -0.257951f, 0.164555f, -0.392594f, -0.043396f, -0.055288f, 0.301555f, 0.258782f, -0.019321f, 0.123707f, 0.253381f, 0.217136f, 0.248712f, -0.275903f, 0.469660f, -0.345230f, -0.141591f, -0.508492f, -0.004668f, -0.336945f, 0.304529f, 0.014186f, 0.017035f, 0.200291f, 0.386331f, -0.042937f, 0.030279f, 0.084309f, 0.202447f, 0.423534f, -0.165619f, -0.056124f, 0.166493f, -0.158381f, 0.295010f, 0.240966f, 0.111190f, -0.213984f, 0.359043f, 0.080639f, -0.173744f, 0.469269f, 0.493205f, -0.269432f, 0.154821f, 0.029704f, -0.344288f, -0.060479f, 0.157194f, -0.029044f, 0.219060f, 0.357876f, 0.091623f, 0.116947f, -0.357194f, -0.328814f, 0.027825f, 0.204787f, -0.305580f, 0.046572f, 0.185197f, 0.378040f, -0.153378f, 0.040227f, -0.196137f, -0.069466f, -0.275394f, -0.278429f, -0.077703f, -0.023115f, -0.178025f, 0.099615f, -0.104176f, 0.186532f, 0.125080f, -0.299015f, -0.134014f, 0.012515f, 0.040466f, 0.065780f, 0.108840f, 0.016613f, -0.135327f, 0.131239f, -0.266048f, -0.164387f, -0.069429f, -0.135101f, -0.097026f, -0.227322f, 0.050565f, 0.292107f, -0.037005f, 0.175082f, 0.014311f, -0.180771f, -0.129147f, -0.173965f, 0.140889f, 0.072573f, 0.343336f, 0.073457f, 0.287164f, -0.020058f, -0.249150f, -0.131485f, 0.188849f, -0.001798f, -0.137856f, -0.212537f, -0.259559f, -0.234086f, -0.056257f, 0.152100f, 0.149947f, -0.267485f, 0.173006f, -0.217029f, -0.058635f, -0.112458f, -0.053422f, -0.054456f, -0.248880f, -0.239475f, -0.043400f, 0.003587f, -0.125993f, 0.104478f, -0.249631f, 0.083273f, 0.128179f, -0.229184f, 0.134460f, -0.015059f, -0.357512f, 0.057154f, -0.141189f, -0.009053f, 0.113936f, -0.334762f, -0.079201f, -0.174759f, 0.181883f, 0.021232f, 0.072074f, 0.041631f, -0.082128f, -0.120736f, -0.289039f, 0.088853f, 0.303974f, 0.123778f, -0.261925f, -0.052483f, -0.257120f, -0.403595f, -0.376874f, 0.290272f, -0.292605f, 0.102839f, -0.179464f, 0.136852f, -0.354834f, -0.286707f, -0.153010f, 0.122417f, -0.022132f, 0.370615f, 0.422918f, -0.319172f, 0.082219f, -0.342841f, -0.199259f, -0.368437f, 0.217831f, -0.217887f, 0.067539f, -0.276880f, 0.511665f, -0.233198f, 0.197542f, 0.151616f, -0.010373f, -0.113258f, -0.354685f, 0.284856f, -0.295924f, -0.206968f, -0.197998f, -0.184030f, -0.096093f, 0.089796f, -0.071222f, 0.120895f, 0.382567f, -0.077267f, -0.003776f, -0.111863f, -0.098040f, 0.122487f, 0.171933f, 0.249164f, -0.014653f, -0.007544f, 0.245664f, -0.258579f, 0.166852f, -0.229347f, 0.003823f, -0.047154f, -0.146073f, 0.036658f, 0.229346f, -0.081075f, -0.164661f, -0.102575f, -0.274895f, 0.125194f, -0.133201f, -0.185087f, -0.494586f, 0.489850f, 0.459213f, 0.505021f, -0.213873f, -0.140065f, -0.111236f, 0.018765f, 0.052928f, 0.197958f, 0.029925f, -0.026386f, -0.044228f, 0.128818f, -0.215598f, -0.306773f, 0.172815f, -0.398147f, -0.064921f, 0.089075f, -0.033614f, 0.020817f, -0.322661f, 0.195738f, -0.049913f, 0.206783f, 0.054537f, 0.053876f, -0.184616f, -0.078962f, -0.434889f, 0.259270f, 0.344562f, 0.071017f, 0.277572f, -0.316801f, 0.467669f, -0.347212f, 0.221266f, -0.018295f, -0.206227f, -0.025140f, -0.216988f, -0.004132f, -0.024175f, -0.277056f, -0.032422f, 0.041848f, 0.036835f, -0.109721f, -0.301274f, -0.117646f, 0.209571f, -0.226235f, 0.013509f, 0.070010f, 0.010429f, -0.054224f, 0.053078f, -0.020877f, -0.145663f, -0.012060f, -0.322372f, -0.023280f, 0.116779f, 0.201998f, 0.034439f, 0.056785f, 0.007431f, -0.360577f, -0.290814f, -0.322679f, 0.198092f, 0.354811f, -0.245642f, 0.068902f, 0.133088f, 0.226019f, 0.302707f, 0.119131f, -0.097610f, -0.146721f, 0.407490f, 0.258694f, -0.062964f, 0.350991f, 0.112513f, 0.208406f, -0.142919f, 0.137598f, -0.048749f, 0.065637f, 0.191583f, 0.315466f, 0.238334f, 0.401700f, -0.101479f, 0.220947f, -0.145498f, 0.095866f, -0.242342f, -0.203034f, -0.174046f, 0.398548f, 0.123978f, 0.174093f, 0.392439f, -0.298436f, -0.106589f, -0.103907f, -0.165267f, 0.141432f, -0.130677f, -0.198541f, -0.320008f, -0.210959f, 0.331384f, 0.163233f, 0.335566f, 0.102404f, 0.373521f, 0.045965f, 0.233389f, 0.280260f, 0.199351f, 0.114076f, 0.275347f, 0.216133f, 0.026177f, 0.074302f, 0.064960f, -0.132163f, -0.238574f, -0.224414f, -0.142676f, 0.119007f, 0.100591f, -0.099252f, -0.144139f, 0.145198f, 0.083942f, -0.048817f, -0.226362f, 0.643035f, 0.050013f, -0.292056f, 0.227259f, 0.519112f, -0.034903f, 0.351434f, -0.037961f, -0.029495f, 0.196999f, 0.085887f, -0.151584f, 0.035464f };
const float layer0_bias[32] = { -0.030595f, -0.017845f, 0.197297f, 0.190247f, 0.253827f, -0.157047f, 0.092253f, 0.237613f, 0.072286f, -0.253481f, 0.018172f, -0.206111f, -0.118341f, -0.019381f, -0.258721f, 0.243671f, 0.450192f, -0.109966f, -0.242400f, -0.099370f, 0.283297f, -0.205645f, 0.324985f, -0.326689f, -0.353296f, -0.281008f, -0.009337f, 0.376097f, -0.127127f, 0.110266f, -0.215247f, 0.214187f };

const float layer1_weights[192] = { 0.384236f, -0.169141f, 0.011408f, 0.210428f, 0.013901f, 0.128918f, -0.431901f, -0.023626f, 0.083831f, 0.083830f, -0.116576f, -0.050846f, -0.173573f, -0.103219f, 0.077146f, -0.310547f, -0.112671f, -0.039909f, 0.127523f, -0.118278f, -0.314693f, -0.033682f, -0.092441f, 0.109263f, 0.094047f, 0.042665f, 0.206039f, -0.511101f, -0.233561f, 0.093268f, -0.043090f, -0.352671f, -0.206989f, -0.211836f, -0.255370f, 0.003298f, -0.187291f, 0.180087f, 0.327506f, -0.061247f, -0.078441f, -0.054655f, -0.097615f, 0.023494f, 0.087630f, -0.194079f, 0.071859f, -0.175923f, -0.353269f, -0.207818f, 0.221457f, 0.161667f, -0.524329f, 0.031541f, -0.088339f, 0.040866f, 0.089322f, -0.165916f, 0.249180f, 0.021219f, -0.160080f, 0.002784f, -0.151736f, 0.465188f, -0.296800f, -0.100726f, -0.081291f, 0.121838f, -0.331858f, 0.154746f, 0.187226f, -0.202639f, -0.044339f, -0.042636f, 0.166008f, -0.128056f, -0.103950f, 0.006540f, 0.062452f, -0.316154f, -0.175498f, -0.218703f, -0.010910f, 0.172653f, 0.188101f, -0.057972f, -0.435172f, -0.066192f, 0.051520f, -0.052150f, -0.281528f, -0.005449f, -0.322167f, 0.125269f, -0.169177f, -0.138210f, -0.136910f, 0.179086f, -0.266066f, -0.075295f, 0.184807f, 0.096074f, -0.543722f, -0.229367f, 0.109846f, -0.111845f, -0.018497f, -0.015257f, -0.037239f, -0.112530f, 0.049302f, 0.258909f, -0.416445f, -0.201676f, -0.119441f, 0.088957f, 0.036787f, 0.086588f, -0.026935f, 0.032797f, 0.074444f, 0.008340f, 0.074367f, 0.341006f, 0.105988f, -0.183729f, -0.077332f, -0.068405f, -0.303046f, 0.059888f, -0.223705f, 0.292144f, -0.335643f, -0.462472f, -0.502826f, -0.204347f, -0.112338f, -0.089270f, 0.097293f, 0.067133f, 0.140594f, 0.028876f, -0.121149f, -0.409013f, -0.547468f, 0.034305f, 0.287281f, 0.077058f, 0.008648f, 0.326932f, 0.473438f, 0.094454f, -0.090864f, 0.088828f, -0.396113f, 0.059370f, -0.278336f, 0.064397f, -0.054981f, -0.332570f, -0.340045f, -0.220038f, 0.140546f, -0.105352f, 0.280313f, -0.232595f, -0.039566f, 0.346634f, 0.004071f, 0.025028f, 0.101888f, 0.023763f, -0.081787f, 0.060985f, 0.137859f, -0.200565f, 0.196833f, 0.007640f, 0.250027f, -0.029194f, -0.428602f, 0.181489f, 0.264844f, -0.018651f, 0.187513f, 0.132680f, -0.124083f, 0.042000f, 0.045045f, -0.141525f, 0.005384f, 0.089686f };
const float layer1_bias[6] = { -0.144772f, -0.073629f, 0.068853f, 0.054723f, 0.062193f, 0.185705f };

const LayerData nn_layers[] = {
{nullptr, nullptr, 0, 13 },
{ layer0_weights, layer0_bias, 13, 32 },
{ layer1_weights, layer1_bias, 32, 6 }
};

const uint8_t nn_total_layers = 3;
